{
  "source_npz": "/Users/oscaragren/Documents/MDU/MASTER THESIS/DMP-Master-Thesis/coupling/dmp_model_personalized.npz",
  "key": "curvature_weights",
  "curvature_weights": [
    [
      232.0675055030587,
      669.9695159542592,
      143.09690841479795,
      -1398.6290980918816,
      338.552001972518,
      680.8596091403981,
      -1082.5489424468453,
      -140.1724644820372,
      548.7208107035127,
      719.7039610619371,
      3344.6138474926406,
      4447.267575624893,
      1313.349269915354,
      6012.592777779826,
      12599.368707430003,
      18255.52136547927,
      18255.416569339974,
      15768.74347333537,
      1326.0811155801614,
      -2853.7936798199353,
      -3300.5306594333147,
      1266.223869064672,
      5532.802996381094,
      11681.93941482924,
      19155.00805158555,
      20387.019656611974,
      16508.355312093106,
      -7578.911622492141,
      -14592.533469390932,
      -13543.596472355766,
      -11056.473100161871,
      -9867.458495621291,
      -8903.162513863053,
      -6067.724431820505,
      -4712.952261045379,
      -4112.546272772963,
      -4693.239840234416,
      -4173.581180421263,
      -1460.7603285052987,
      -1461.826761519264,
      194.9845965331061,
      6471.576709660409,
      11889.37702765334,
      18637.015537998715,
      26422.267542594425,
      18096.76291045383,
      7257.572765524144,
      -12413.986670516997,
      -33715.18629702956,
      -34051.0693733574,
      42752.490273110794,
      26779.098868441295,
      -4432.687216875557,
      1601.4391643945266,
      376.67237853644224,
      -1437.4611379158293,
      8802.426450695357,
      3870.01099783301,
      -4530.918394770546,
      9597.929926502331,
      3341.4637315496307,
      -12817.007745504481,
      -10.296573772066205,
      -908.1460013273523,
      -9827.880954370588,
      8557.565453160318,
      7925.642754424626,
      -8853.20194997576,
      9251.443816291623,
      13057.691247962664,
      -1897.7314454538157,
      652.8818380071385,
      2746.8830850070244,
      1400.4746740078724,
      831.6276417183806,
      -1464.76183960499,
      -7391.138988764765,
      -972.3083784440341,
      2611.827732834067,
      -4489.68654852485,
      -8713.297934512218,
      -6176.754084396688,
      16901.694722088952,
      18244.719613577006,
      21613.72940349941,
      42063.49723014718,
      37507.54236182885,
      29122.847686076722,
      23027.288907664017,
      15742.98799692212,
      5319.92205528916,
      -13743.488998390316,
      -6003.111176200413,
      21378.115117744357,
      55966.91149193229,
      34362.97965618892,
      6292.205906709064,
      203604.55682793513,
      200185.87115659844,
      25070.720839824196
    ],
    [
      735.7226229458959,
      1189.3008557521264,
      1526.397279421032,
      1766.595013092323,
      1336.7643177651773,
      1193.5606693280258,
      1228.2158730596946,
      799.7382571926872,
      497.53931939412996,
      -177.92803370473015,
      -3867.1526290215743,
      -5682.518975917808,
      -2241.562978297998,
      -5314.432201214058,
      -11121.344067465476,
      -19062.781528032112,
      -19585.42475552925,
      -24228.330580657464,
      -37373.3249072819,
      -23951.428920116745,
      -6304.964392092339,
      1509.6073937599933,
      10733.38870968568,
      22562.06496666967,
      26235.427519666227,
      25962.75071588645,
      28028.20419832153,
      36480.24058753834,
      29548.015192251256,
      13168.196001732646,
      8642.024834778855,
      -57.964628539775624,
      -16370.641845175433,
      -21061.25834450034,
      -23152.10047711254,
      -24004.40323203892,
      -23551.20367339315,
      -20810.493926862044,
      -11954.441190709285,
      -13606.956168398272,
      -16652.15414182654,
      -17661.225330509824,
      -14057.335660998402,
      -12640.66119718953,
      -12370.5188986263,
      -10873.338062907202,
      -10641.32871703607,
      -10052.23347976253,
      -8891.31491666739,
      -4036.464956877724,
      15267.28452199915,
      17264.719916473096,
      17423.326633948265,
      18821.17763706381,
      3924.7062620229703,
      -18395.110949362806,
      -34954.49691769444,
      -33962.44499168854,
      -31636.42241923073,
      -43019.41928137109,
      -37003.58336089141,
      -20050.652674621295,
      -3308.2866347655167,
      -1131.1346186339988,
      -6071.8632327655,
      3215.846642340988,
      918.4193268583383,
      -13464.735459386584,
      -14657.536005212589,
      -11613.920761636946,
      -3138.320072663677,
      -2274.738503789818,
      -2462.708101888848,
      -2344.2516618657596,
      -3088.8375150229376,
      -5070.145243562732,
      -8508.156998205968,
      -4612.896119094816,
      -4344.637375447845,
      -13580.847359655936,
      -13415.005252871595,
      -8299.760361476423,
      10495.353134390854,
      12727.161209449452,
      14807.246159368768,
      24312.15934689284,
      17981.392205571316,
      10293.732614525641,
      13167.405692936463,
      10302.132833104153,
      1946.9274249056857,
      -18592.693540949847,
      -12614.85828312026,
      11932.90423860843,
      45656.99852428795,
      37161.625764571756,
      32135.159862176926,
      216506.50527416155,
      205159.7553474856,
      25665.602815151764
    ],
    [
      205.8575771052274,
      519.9355085208039,
      656.0792584270878,
      649.9205123446571,
      852.9065159401229,
      960.6422519420364,
      851.6605867994606,
      934.5928416586405,
      1041.3032520079169,
      941.4687902694476,
      628.8930174139057,
      639.0435222989028,
      1232.5489591390465,
      1584.481249135329,
      1742.9310595135914,
      934.0368623198981,
      627.3568248086119,
      -198.9183607822525,
      -3242.3842257065558,
      -2674.218234902652,
      -1272.1037095584861,
      116.75523908293614,
      2474.1802644899303,
      5914.21769167516,
      8719.874832809664,
      13534.426999430143,
      20260.504981762373,
      16598.073652578827,
      16591.157233954422,
      20624.51564371526,
      24979.600561894247,
      24438.068245191535,
      20461.870759199923,
      20328.004807792793,
      20830.836945359344,
      19722.660165433936,
      11834.94127150898,
      5380.399597590511,
      -3339.7789927389895,
      -9762.338882161657,
      -15776.785751772568,
      -23061.77838541146,
      -29350.159064727126,
      -34196.25120648377,
      -30423.216905538884,
      -31469.1775727016,
      -34372.14757521683,
      -28709.639664218153,
      -29369.60820337042,
      -35552.74902583988,
      -39571.49412128137,
      -24580.8248315713,
      -6614.357696457988,
      9297.397017188545,
      16505.469789233754,
      23085.534063362255,
      24396.9187342041,
      20798.97060547016,
      15190.189766224183,
      5091.409144632815,
      -341.2600849205158,
      -4620.872199497516,
      -5663.524113110672,
      -5315.300121515649,
      -3768.225025134083,
      -378.41991974243473,
      -264.0632692104699,
      -2236.293998227188,
      2899.713109047226,
      3708.284571104072,
      -463.5918246432601,
      3374.281363864478,
      6286.4543923472065,
      7063.773385201423,
      7348.4477703038165,
      8468.225436085328,
      9888.645788267648,
      10943.984045120264,
      12200.011867946192,
      10527.929436380979,
      7845.8208049626755,
      5688.51076796209,
      2050.503561602945,
      -466.93123327746156,
      -2892.6538384974424,
      -5247.565097631463,
      -6545.4895882439305,
      -8331.56982422773,
      -8941.022011829336,
      -7988.833306195073,
      -6956.473468486678,
      -5288.553144846756,
      -2078.019336840965,
      3892.8321601888465,
      13362.737214824212,
      11171.920330849112,
      10372.207077879935,
      63821.7451009384,
      60209.58044819095,
      7531.244923237465
    ],
    [
      2079.3270496842847,
      2763.3443353019175,
      3231.367770914345,
      3551.383813867628,
      3237.6430368638107,
      3294.379250433472,
      3410.4312371432043,
      2613.2875704508224,
      2084.3128801770704,
      1332.9188371311106,
      283.589359416298,
      -1119.7428266740906,
      -3832.1513122725178,
      -5840.988352592714,
      -7034.454486670006,
      -4664.301368860176,
      -7128.803223607796,
      -8853.949966664992,
      -694.2455863549604,
      945.9530697028167,
      956.2198032934178,
      1605.0876310142426,
      -199.96497953143276,
      -3565.218241441246,
      -7477.848890929192,
      -11960.259984980565,
      -16600.305973902818,
      -7729.66930248574,
      -7670.453378350831,
      -13004.632800110448,
      -10582.551729355655,
      -7465.448206925218,
      -2807.980059099976,
      952.0191224039978,
      3140.9131750254405,
      4649.462521436898,
      2753.327668338452,
      805.8035642837053,
      -3081.5607334731867,
      -13264.973976993288,
      -21836.86203269249,
      -27623.64959374681,
      -26957.552098522952,
      -25486.095280679183,
      -16753.021283188296,
      -16803.25485111715,
      -17545.74776462189,
      -8749.541696988019,
      3606.2254548614087,
      23886.680681670226,
      64378.250500052854,
      77886.41042012341,
      83003.02065792066,
      42533.573743322624,
      21586.320582562137,
      5041.9487860959625,
      -20017.4292138674,
      -33704.23418725249,
      -45579.83531933069,
      -37076.57111318178,
      -27315.936486052007,
      -16173.270243563264,
      -8030.397131385681,
      585.5201278854538,
      12506.795960017058,
      12373.093444565868,
      10572.96461867154,
      6933.8076787234795,
      3281.9219673152907,
      2725.8244226929964,
      3925.6888840369115,
      -3871.846882990522,
      -7549.547110072361,
      -5028.367692047218,
      -6997.647919561621,
      -6415.463733079602,
      2125.418049428548,
      4834.241759139893,
      12448.075601036098,
      32377.47343091531,
      18478.12059501337,
      5043.748614377974,
      5271.653416521576,
      762.5046547801775,
      -5974.229119393808,
      -14548.448412742358,
      -18651.94631978166,
      -24103.408860031675,
      -27619.224131781928,
      -23126.254724337152,
      -12288.19293759356,
      16736.8687738426,
      20167.979118443236,
      18538.695068557266,
      47342.42983884152,
      42941.72544130105,
      25279.402717133966,
      71521.4343150151,
      64152.01663385019,
      8011.868420882004
    ]
  ]
}